digraph Tree {
node [shape=box, style="filled, rounded", color="black", fontname="helvetica"] ;
edge [fontname="helvetica"] ;
0 [label="Variance <= 0.32\ngini = 0.494\nsamples = 1234\nvalue = [684, 550]\nclass = 0", fillcolor="#fae6d8"] ;
1 [label="Skewness <= 7.574\ngini = 0.309\nsamples = 592\nvalue = [113, 479]\nclass = 1", fillcolor="#68b4eb"] ;
0 -> 1 [labeldistance=2.5, labelangle=45, headlabel="True"] ;
2 [label="Variance <= -0.459\ngini = 0.137\nsamples = 500\nvalue = [37, 463]\nclass = 1", fillcolor="#49a5e7"] ;
1 -> 2 ;
3 [label="Curtosis <= 6.219\ngini = 0.073\nsamples = 424\nvalue = [16, 408]\nclass = 1", fillcolor="#41a1e6"] ;
2 -> 3 ;
4 [label="Skewness <= 7.293\ngini = 0.007\nsamples = 288\nvalue = [1, 287]\nclass = 1", fillcolor="#3a9de5"] ;
3 -> 4 ;
5 [label="gini = 0.0\nsamples = 284\nvalue = [0, 284]\nclass = 1", fillcolor="#399de5"] ;
4 -> 5 ;
6 [label="Skewness <= 7.349\ngini = 0.375\nsamples = 4\nvalue = [1, 3]\nclass = 1", fillcolor="#7bbeee"] ;
4 -> 6 ;
7 [label="gini = 0.0\nsamples = 1\nvalue = [1, 0]\nclass = 0", fillcolor="#e58139"] ;
6 -> 7 ;
8 [label="gini = 0.0\nsamples = 3\nvalue = [0, 3]\nclass = 1", fillcolor="#399de5"] ;
6 -> 8 ;
9 [label="Skewness <= -4.675\ngini = 0.196\nsamples = 136\nvalue = [15, 121]\nclass = 1", fillcolor="#52a9e8"] ;
3 -> 9 ;
10 [label="gini = 0.0\nsamples = 120\nvalue = [0, 120]\nclass = 1", fillcolor="#399de5"] ;
9 -> 10 ;
11 [label="Curtosis <= 6.615\ngini = 0.117\nsamples = 16\nvalue = [15, 1]\nclass = 0", fillcolor="#e78946"] ;
9 -> 11 ;
12 [label="Variance <= -1.708\ngini = 0.5\nsamples = 2\nvalue = [1, 1]\nclass = 0", fillcolor="#ffffff"] ;
11 -> 12 ;
13 [label="gini = 0.0\nsamples = 1\nvalue = [0, 1]\nclass = 1", fillcolor="#399de5"] ;
12 -> 13 ;
14 [label="gini = 0.0\nsamples = 1\nvalue = [1, 0]\nclass = 0", fillcolor="#e58139"] ;
12 -> 14 ;
15 [label="gini = 0.0\nsamples = 14\nvalue = [14, 0]\nclass = 0", fillcolor="#e58139"] ;
11 -> 15 ;
16 [label="Curtosis <= 0.297\ngini = 0.4\nsamples = 76\nvalue = [21, 55]\nclass = 1", fillcolor="#85c2ef"] ;
2 -> 16 ;
17 [label="Skewness <= 6.031\ngini = 0.083\nsamples = 46\nvalue = [2, 44]\nclass = 1", fillcolor="#42a1e6"] ;
16 -> 17 ;
18 [label="gini = 0.0\nsamples = 44\nvalue = [0, 44]\nclass = 1", fillcolor="#399de5"] ;
17 -> 18 ;
19 [label="gini = 0.0\nsamples = 2\nvalue = [2, 0]\nclass = 0", fillcolor="#e58139"] ;
17 -> 19 ;
20 [label="Entropy <= 0.688\ngini = 0.464\nsamples = 30\nvalue = [19, 11]\nclass = 0", fillcolor="#f4caac"] ;
16 -> 20 ;
21 [label="Variance <= 0.096\ngini = 0.188\nsamples = 19\nvalue = [17, 2]\nclass = 0", fillcolor="#e89050"] ;
20 -> 21 ;
22 [label="gini = 0.0\nsamples = 16\nvalue = [16, 0]\nclass = 0", fillcolor="#e58139"] ;
21 -> 22 ;
23 [label="Curtosis <= 1.509\ngini = 0.444\nsamples = 3\nvalue = [1, 2]\nclass = 1", fillcolor="#9ccef2"] ;
21 -> 23 ;
24 [label="gini = 0.0\nsamples = 2\nvalue = [0, 2]\nclass = 1", fillcolor="#399de5"] ;
23 -> 24 ;
25 [label="gini = 0.0\nsamples = 1\nvalue = [1, 0]\nclass = 0", fillcolor="#e58139"] ;
23 -> 25 ;
26 [label="Curtosis <= 6.251\ngini = 0.298\nsamples = 11\nvalue = [2, 9]\nclass = 1", fillcolor="#65b3eb"] ;
20 -> 26 ;
27 [label="gini = 0.0\nsamples = 9\nvalue = [0, 9]\nclass = 1", fillcolor="#399de5"] ;
26 -> 27 ;
28 [label="gini = 0.0\nsamples = 2\nvalue = [2, 0]\nclass = 0", fillcolor="#e58139"] ;
26 -> 28 ;
29 [label="Variance <= -4.726\ngini = 0.287\nsamples = 92\nvalue = [76, 16]\nclass = 0", fillcolor="#ea9c63"] ;
1 -> 29 ;
30 [label="gini = 0.0\nsamples = 16\nvalue = [0, 16]\nclass = 1", fillcolor="#399de5"] ;
29 -> 30 ;
31 [label="gini = 0.0\nsamples = 76\nvalue = [76, 0]\nclass = 0", fillcolor="#e58139"] ;
29 -> 31 ;
32 [label="Curtosis <= -4.386\ngini = 0.197\nsamples = 642\nvalue = [571, 71]\nclass = 0", fillcolor="#e89152"] ;
0 -> 32 [labeldistance=2.5, labelangle=-45, headlabel="False"] ;
33 [label="Skewness <= 7.335\ngini = 0.313\nsamples = 36\nvalue = [7, 29]\nclass = 1", fillcolor="#69b5eb"] ;
32 -> 33 ;
34 [label="gini = 0.0\nsamples = 29\nvalue = [0, 29]\nclass = 1", fillcolor="#399de5"] ;
33 -> 34 ;
35 [label="gini = 0.0\nsamples = 7\nvalue = [7, 0]\nclass = 0", fillcolor="#e58139"] ;
33 -> 35 ;
36 [label="Variance <= 1.592\ngini = 0.129\nsamples = 606\nvalue = [564, 42]\nclass = 0", fillcolor="#e78a48"] ;
32 -> 36 ;
37 [label="Curtosis <= -2.272\ngini = 0.367\nsamples = 161\nvalue = [122, 39]\nclass = 0", fillcolor="#eda978"] ;
36 -> 37 ;
38 [label="Skewness <= 5.667\ngini = 0.211\nsamples = 25\nvalue = [3, 22]\nclass = 1", fillcolor="#54aae9"] ;
37 -> 38 ;
39 [label="gini = 0.0\nsamples = 22\nvalue = [0, 22]\nclass = 1", fillcolor="#399de5"] ;
38 -> 39 ;
40 [label="gini = 0.0\nsamples = 3\nvalue = [3, 0]\nclass = 0", fillcolor="#e58139"] ;
38 -> 40 ;
41 [label="Entropy <= 0.082\ngini = 0.219\nsamples = 136\nvalue = [119, 17]\nclass = 0", fillcolor="#e99355"] ;
37 -> 41 ;
42 [label="gini = 0.0\nsamples = 101\nvalue = [101, 0]\nclass = 0", fillcolor="#e58139"] ;
41 -> 42 ;
43 [label="Curtosis <= 1.853\ngini = 0.5\nsamples = 35\nvalue = [18, 17]\nclass = 0", fillcolor="#fef8f4"] ;
41 -> 43 ;
44 [label="Skewness <= 3.559\ngini = 0.188\nsamples = 19\nvalue = [2, 17]\nclass = 1", fillcolor="#50a9e8"] ;
43 -> 44 ;
45 [label="gini = 0.0\nsamples = 17\nvalue = [0, 17]\nclass = 1", fillcolor="#399de5"] ;
44 -> 45 ;
46 [label="gini = 0.0\nsamples = 2\nvalue = [2, 0]\nclass = 0", fillcolor="#e58139"] ;
44 -> 46 ;
47 [label="gini = 0.0\nsamples = 16\nvalue = [16, 0]\nclass = 0", fillcolor="#e58139"] ;
43 -> 47 ;
48 [label="Variance <= 2.037\ngini = 0.013\nsamples = 445\nvalue = [442, 3]\nclass = 0", fillcolor="#e5823a"] ;
36 -> 48 ;
49 [label="Curtosis <= -2.648\ngini = 0.105\nsamples = 54\nvalue = [51, 3]\nclass = 0", fillcolor="#e78845"] ;
48 -> 49 ;
50 [label="Entropy <= -1.796\ngini = 0.375\nsamples = 4\nvalue = [1, 3]\nclass = 1", fillcolor="#7bbeee"] ;
49 -> 50 ;
51 [label="gini = 0.0\nsamples = 1\nvalue = [1, 0]\nclass = 0", fillcolor="#e58139"] ;
50 -> 51 ;
52 [label="gini = 0.0\nsamples = 3\nvalue = [0, 3]\nclass = 1", fillcolor="#399de5"] ;
50 -> 52 ;
53 [label="gini = 0.0\nsamples = 50\nvalue = [50, 0]\nclass = 0", fillcolor="#e58139"] ;
49 -> 53 ;
54 [label="gini = 0.0\nsamples = 391\nvalue = [391, 0]\nclass = 0", fillcolor="#e58139"] ;
48 -> 54 ;
}